-0.003109556553620015 
-0.008272062967399239 
-0.002683695646818897 
0.01610427793638455 
-0.004576345202093794 
-0.008965935411472918 
-0.006033075153592422 
0.002136505008258259 
-0.000647843972838655 
-0.008057451226281315 
-0.008745227504578772 
-0.009910881578815018 
-0.000225980016424114 
-0.002627468449000921 
-0.0006963104804967074 
-0.01144410248105996 
-0.00242145858078965 
0.01306516039036265 
-0.004315628947325813 
-0.004604594866085016 
-0.003949735743556509 
0.004255483257140633 
-0.005693355902128766 
-0.004019623567519188 
-0.009604587320307384 
-0.01331208228462857 
-0.002755504961148045 
-0.004462788129373862 
-0.01008083541749875 
-0.002659032790050394 
-0.02488899115736727 
0.005816048778530034 
0.007097518785380716 
-0.0247567973425333 
5.035932953660885e-05 
0.0004168267403027945 
0.01523690237299284 
-0.003158804341301444 
0.01806604638960277 
-0.003748141881409554 
-0.01435221452861729 
0 
0.02775694688228234 
-0.004233937024628737 
0.02241198134866465 
-0.0239748855532982 
0.003773060710287892 
0.003300478192001813 
-0.003432624689803199 
0.006374984573564408 
-0.003181684819310607 
-0.003168193950698788 
-0.004894339807790011 
-0.01783897375656887 
0.002617101741245746 
-0.00272381825808401 
0.01593259267815299 
-0.00270272731932136 
0.0004137614129250987 
0.01021032949137663 
0.007926550879001093 
-0.005177153171563094 
-0.005599734212458725 
0.02630084632394264 
0.009389314422729807 
-0.01524529730236346 
0.001561306607858285 
-0.02311068799913094 
-0.01247914267913342 
-0.003363645988142578 
0.01150267793962935 
-0.005166356628434132 
-0.002920336482551931 
-0.003591347596912817 
-0.002103113205454655 
-0.002562359551888028 
-0.001312527608902416 
-0.004448027602973702 
-0.002240996713520841 
-0.06019247248139434 
-0.001290125554159542 
-0.004215437953996798 
-0.00829568660608943 
-0.01183003930562511 
-0.00645140790545082 
0.1092009496389242 
-0.01196212127493581 
-0.01008633896945371 
-0.0368790155804821 
-0.003330481829405835 
0.005651856363791019 
-0.004052677126471283 
-0.006340318557852554 
-0.009820066543945748 
0.01289343394842999 
0.01342823370272295 
-0.002322252398219682 
-0.03382348547047222 
-0.01150256653420366 
-0.01035181163008183 
-0.005685364976055584 
-0.006900695992932564 
-0.00902195983823386 
-0.005164603005512837 
-0.009751982112325074 
0.005482687515543065 
0.01340921180549124 
0.08201056250182487 
-0.008829337601288645 
-0.00927286172392308 
-0.004987178409146526 
-0.001415176566513888 
0.01159188957841759 
0.006168687783075629 
0.01842717797221317 
0.01444738722267673 
-0.003306631941502296 
0.02156038345818695 
-0.003699416487777231 
0.01077472926693425 
-0.04222637041184366 
-0.004362355180512941 
-0.003399337590549537 
-0.007813287750245793 
0.03173841336401557 
0.00357068307237403 
-0.00491515432671187 
-0.02360741386188161 
-0.004646921389695038 
-0.0004928867359309685 
0.01601904553395407 
-0.001399235120158654 
0.007176541310145298 
-0.008301824350335874 
-0.005057193320893908 
0.0161801149040873 
-0.001715374520469449 
-0.006122862717111876 
-0.009790105059313284 
-0.01311725710781547 
-0.03709051925140813 
0.005840430909200876 
0.004971894649545362 
-0.005539806009159507 
-0.003030620888923137 
0.01758673159406476 
-0.00176631285118845 
0.007662761968293175 
-0.01699880007600375 
9.735490974123456e-05 
-0.00781914401166265 
0.006812929460444152 
0.01526840809198307 
-0.01290445106204935 
-0.004605213568727281 
0.0005273510816696653 
-0.002297184455086011 
0.1097542584935075 
-0.02895964194443594 
-0.006966412931449771 
-0.01210752081984426 
-0.0124078391353274 
-0.005987706776454191 
-0.00515191766542664 
-0.002300300158460322 
-0.003282531065379991 
-0.01084586945706457 
0.03592051008474196 
-0.004175899611750668 
-0.005905028114842529 
-0.00491753203769516 
-0.0001691517619758445 
0.01125035894077716 
-0.008636903975959773 
0.02520831364043283 
0.001151179279452849 
-0.04808905422444328 
-0.001625833058366057 
-0.01270758698502172 
0.01304585760983074 
-0.006606736571225147 
-0.006145918046659573 
-0.0008456942953808679 
0.002611550943593693 
-0.004837848879064059 
-0.003629556015673585 
0.009525971495236199 
0.02201688312066084 
-0.002834072272192316 
-0.0006926168965427095 
0.0009183972668067386 
0.003854759366598533 
-0.00171332693435564 
-0.002394180400813531 
-0.003339816698368313 
-0.009834372688889344 
-0.0162018320387533 
-0.004994256768440332 
-0.007011346955890792 
0.003015326591786294 
-0.0006507243078154832 
-0.01285169711338333 
0.005192797986700234 
-0.0005317967778394866 
-0.001090464896099173 
-0.001409899013821691 
-0.004803345854617288 
-0.001885758654653851 
-0.007851001587549892 
-0.01945394803292428 
0.00376966834024044 
-0.004395137146614065 
-0.008584922468395744 
0.01720814551931059 
-0.002081614610749137 
0 
0.01949736921021524 
0.009218227598568832 
-0.002620883125420112 
-0.007767131939343106 
-0.008774315071294093 
-0.006868359589749922 
-0.003749299078013082 
-0.005237222149594522 
-0.008384856694475272 
-0.01222859082797332 
-0.000225980016424114 
-0.002731246105427349 
0.002076182796836083 
-0.00452581468981786 
0.033316662457888 
-0.004466466875064069 
-0.005667546776491649 
-0.004232282490731759 
0.0002311098189972995 
-0.005523859885600481 
-0.004172403246067048 
0.01559616868724113 
-0.01052162512649458 
-0.004734210638232589 
-0.002135747137629557 
-0.001548645026046556 
-0.002009898041439633 
-0.004609323022981681 
-0.0112332451093164 
-0.01855095933439574 
-0.00357934924138258 
-0.01205484255741074 
-0.0035680723661647 
0.01034024083292131 
-0.003109450816202119 
0.005163650424798162 
-0.003003902910854396 
-0.006026157890149987 
0.005949143927579184 
0.001019546352812852 
-0.002955019644506941 
0.003477182043573548 
-0.01297359963525687 
0.01420050953993957 
-0.001577526825791424 
-0.005377339900867411 
-0.007974402400648841 
0.003414882908904761 
0.006917616953063052 
-0.008119349345921571 
-0.002895379575772305 
0.0002982551617967841 
0.04179351708301822 
-0.006968064885233377 
-0.003947535837667332 
-0.00251017015101726 
-0.004952200226156304 
-0.01832332821257978 
-0.005012711999876488 
-0.007047014773241146 
-0.01477147065239066 
-0.01507397534644223 
-0.005001859254938991 
-0.01527650304364305 
-0.004430677693696007 
0.01547306949883112 
-0.01243012098674935 
-0.003222474723281576 
-0.003717314841219652 
0.03324524517445418 
0.01830135093687522 
-0.006755829436480283 
-0.06013399961311634 
0.00589621682607949 
0.005697184375814675 
-0.0002941560447367947 
-0.01403030702144868 
-0.003280101085534215 
-0.002526679036603003 
-0.01638599955455508 
-0.002543391949958441 
-0.005628607630924819 
-0.003080198885391259 
-0.0004975006254141721 
0.004093811986725144 
0.006596259444326748 
-0.008706577692302965 
-0.004527692017692046 
-0.04725499639637519 
-0.03315283445980709 
-0.004102183456243236 
-0.005238477364348343 
-0.005129986805286357 
-0.006627572226915104 
0.007347112776015177 
-0.0008405811105792732 
-0.006505470138232789 
-0.003111224394183482 
-0.004324037592592782 
0.009306727324071038 
0.01781767499520217 
-0.001497963148508496 
-0.006743947435721952 
-0.001319584412042845 
0.005804052359924715 
-0.004227683811857814 
-0.003544047359872851 
-0.006112236087426202 
0.009179673111306845 
0.01065729599074317 
-0.0003255619149815779 
-0.01150912032068 
0.01603421214536682 
0.007408564627336493 
-0.0007956174946565689 
0.0212506667656079 
-0.003571407850796262 
-0.007762635731907875 
-0.003265491163700873 
0.06884515306122184 
-0.004684381475080174 
-0.001305663322629038 
-0.003489412952682453 
0.0007528280831257336 
-0.002059282542422998 
-0.0008103346174143743 
0 
-0.005427285511209792 
0.00976091636770862 
0.009026816153085114 
-0.006544944070325133 
-0.004849794729667749 
0 
-0.01779263186698176 
-0.005553740109328159 
-0.00161817003354981 
-0.00402227523395039 
-0.007708040065438253 
-0.01270162609628699 
-0.007429110317894628 
-0.004175899611750668 
0.007619599861794733 
-0.006699608623381385 
-0.003397237921710574 
0.01298014439726867 
0.007394531065457012 
0.01951426311982233 
-0.003566813965829997 
-0.005900360187702061 
-0.00577518040367323 
-0.0190479206263465 
-0.002590895977919606 
0.006605032422382602 
-0.00357596814715356 
0 
-0.004259984095928714 
-0.00358931721091735 
0.005741481273367432 
-0.007384315154438248 
-0.004035724023115844 
-0.002859006345278932 
-0.002762148283308491 
-0.003719115937832413 
-0.03894426826331849 
0.004696458963976363 
-0.00275107250304784 
0.01314014895088166 
-0.004918641950395715 
-0.004192997402477528 
0.04267598004348848 
0.006093583432330127 
-0.003691707094971677 
-0.004211588361176827 
-0.003300229432411551 
-0.002918410699803963 
-0.002196583150255503 
-0.008436842877830107 
-0.02620950054605814 
0.0007864826434529536 
0.0107183974439694 
-0.002238713621013615 
-0.00936077428558057 
-0.007051478052330694 
-0.003087297991218753 
-0.01052546850543795 
-0.003941260830809945 
-0.008581613338829069 
0.00917314507322705 
-0.001088206544244196 
-0.007106081640879653 
-0.003670332052136342 
-0.02027806149845247 
-0.007566954267080012 
0.005482687515543065 
0.0462809791154534 
0.01723892868973248 
-0.004262841372974491 
-0.003382814354760165 
-0.002636383845533424 
-0.007357187127727345 
0.004795444998656787 
-0.002716825277935807 
-0.01033508553883465 
-0.00745205676573621 
-0.001114009853640332 
-0.008985324172164471 
-0.008033448279857087 
-0.002644810677583001 
-0.007714656342506352 
0.01075308280381603 
-0.01105212930245397 
-0.009644448882273112 
-0.01608998381348053 
0.005693293803086996 
-0.0004356067359748584 
-0.0008729759647627206 
-0.0008526337575651928 
-0.002474919621744352 
-0.001933795082990406 
0.006399396168399044 
0.008481167205598888 
-0.01185651068688047 
-0.01254501108645161 
-0.004175899611750668 
-0.01337081971696533 
-0.00170418160883209 
-0.004763307370667964 
-0.001688725117996095 
-0.008058810419905391 
0.03862200164741651 
-0.003477777811028181 
0.005580900488170357 
0.004880903904674247 
-0.003103610829270763 
-0.009732039358918351 
0.02020565401632337 
-0.01151718842920075 
0.003081548942587435 
0.01309554730272322 
0.0194356966147523 
0.005967219096790932 
0.02033313762121561 
-0.004482295436363465 
-0.007953671975479382 
-0.004124791169500579 
-0.0005144454572330149 
0.003326120999720154 
0.003332989753381766 
-0.008562714416736115 
0.005280100776193761 
-0.008785738351158963 
-0.002925273778029655 
-0.00452581468981786 
-0.006442275642706532 
-0.004431779866597528 
-0.001951548691299089 
-0.03949585682163712 
0.01950132045553738 
-0.005462961926172434 
-0.005104248894969045 
-0.005748875562602484 
0.001764702336708369 
-0.01287424053609409 
0.02460672966223369 
0.01045702073234235 
-0.002590817981252211 
-0.002789331345527891 
0.003137256590083303 
-0.007022754668336109 
-0.02922904553730655 
-0.01713937163735004 
-0.003547669256090742 
-0.005933972393844258 
-0.002780340478988078 
-0.004120308571039513 
-0.004601927111104218 
-0.004229696551649931 
-0.002824380230299271 
-0.01886273295045832 
0.007268173595723106 
-0.009584755644456124 
-0.00461102776957282 
-0.001474006159361202 
-0.005214873112050497 
0.01085415577690596 
-0.01389198258719077 
-0.007699875686574508 
-0.002919987528360559 
0.0130427211098207 
-0.005322725260099322 
-0.01255925724677592 
-0.007721723539335884 
-0.005520901267407213 
-0.00420192291375601 
-0.008947487739539201 
-0.003280583384306731 
-0.006548144191118967 
0.009478654910508894 
0.008448042101209368 
0.002739322009886356 
-0.006844494782900529 
-0.00213404020184728 
-0.003192014113955682 
-0.01703495327525521 
-0.004092109548397664 
0.006202138132282211 
-0.001103217226716475 
0 
0.002832076780976576 
-0.00337682586158279 
-0.006952842116495004 
0.03179622661828673 
-0.0005144454572330149 
-0.002373393909023608 
-0.003733818422152956 
0.05954114496755299 
-0.004249513443047551 
0.008563248615505245 
-0.005416398844266905 
-0.01345786073702643 
0.006841489460213886 
-0.01182847399099931 
-0.01007444991345637 
-0.002370067088251722 
-0.02597517022797178 
-0.003648828575838666 
-0.004146269380633434 
-0.004521435554375937 
-0.03085959032291529 
0.002172306783113893 
-0.003012250781996141 
-0.00430368308747984 
-0.004761665814809767 
-0.005991738702571575 
0.002939409818584028 
-0.005178335038850029 
-0.005416073804422194 
-0.004645021796371286 
-0.008338160705257953 
0.004476858695608961 
0.01108214040062385 
0.002489502451822515 
-0.004972807928328686 
-0.01193456343705211 
-0.007801276932090924 
0.01070507510865119 
0.01536340006992483 
-0.002748807816304171 
-0.00760805589268082 
0.01452428700660577 
0.005002077312998291 
-0.007291870024095258 
-0.00274629314513868 
0.0009771066124146764 
-0.0004917656010609774 
-0.008153963667589607 
-0.0007221319812731386 
-0.003985242326925794 
-0.01129844595638692 
0.02426845003305243 
-0.003186330806475605 
-0.00561148233143937 
-0.006411854031877348 
-0.003432471421447768 
0.02330868367648437 
-0.00129781501982866 
0.003082101144201228 
-0.003079873153158608 
0.003191076016443573 
0.01166522961387802 
-0.005978235492426386 
-0.003321335115908727 
-0.005358503397457229 
-0.004160953564756965 
-0.005025742437670373 
-0.01829544663576819 
-0.003029135809762924 
-0.0143010258203242 
-0.003136323593678333 
-0.004000366950012678 
-0.009250467460317678 
-0.01202925063134832 
-0.005847951515407927 
-0.004395107562451777 
-0.001890764275042747 
-0.009720269714532761 
-0.005200242213950336 
-0.05319493160330361 
-0.02957028162385313 
-0.01814125462317664 
-0.003954616251787817 
-0.004841670023622296 
0.0002535416452061277 
-0.009660742283659625 
-0.01014236930545158 
-0.006369439510300608 
-0.00275107250304784 
-0.003016227229772822 
-0.004326484703799065 
-0.003638717344129266 
0.001508790592952972 
0.01616672277342166 
